
\data\
ngram 1=20
ngram 2=21

\1-grams:
-1.322219	</s>
-99	<s>	-0.2575643
-1.322219	四月	-0.2575643
-1.322219	大块	-0.2798407
-1.322219	峦	-0.2798407
-1.322219	底色	-0.2798407
-1.322219	得	-0.2798407
-1.322219	文章	-0.2575643
-1.322219	是	-0.2798407
-1.322219	景	-0.2798407
-1.322219	更是	-0.2575643
-1.322219	林	-0.2798407
-1.322219	烟	-0.2798407
-1.021189	的	-0.178383
-1.322219	盎然	-0.2798407
-1.322219	秀媚	-0.2798407
-1.021189	绿	-0.178383
-1.322219	诗意	-0.2798407
-1.322219	阳春	-0.2798407
-1.322219	鲜活	-0.2798407

\2-grams:
-0.30103	<s> 绿
-0.30103	四月 的
-0.30103	大块 文章
-0.30103	峦 更是
-0.30103	底色 四月
-0.30103	得 鲜活
-0.30103	文章 的
-0.30103	是 阳春
-0.30103	景 大块
-0.30103	更是 绿
-0.30103	林 峦
-0.30103	烟 景
-0.69897	的 底色
-0.69897	的 林
-0.30103	盎然 </s>
-0.30103	秀媚 诗意
-0.69897	绿 得
-0.69897	绿 是
-0.30103	诗意 盎然
-0.30103	阳春 烟
-0.30103	鲜活 秀媚

\end\
